digraph Tree {
node [shape=box, style="rounded", color="black", fontname=helvetica] ;
edge [fontname=helvetica] ;
0 [label="Building Square Feet <= 2534.5\nmse = 73502007203.6\nsamples = 223928\nvalue = 271827.5"] ;
1 [label="Latitude <= 41.9\nmse = 30953881853.7\nsamples = 198148\nvalue = 229877.4"] ;
0 -> 1 [labeldistance=2.5, labelangle=45, headlabel="True"] ;
2 [label="Longitude <= -87.8\nmse = 12014070429.5\nsamples = 75995\nvalue = 147465.4"] ;
1 -> 2 ;
3 [label="Fireplaces <= 0.5\nmse = 17483466035.1\nsamples = 13293\nvalue = 237034.6"] ;
2 -> 3 ;
4 [label="Longitude <= -87.9\nmse = 11400613506.5\nsamples = 8838\nvalue = 198098.6"] ;
3 -> 4 ;
5 [label="Building Square Feet <= 1811.2\nmse = 17051149275.9\nsamples = 2963\nvalue = 248636.9"] ;
4 -> 5 ;
6 [label="mse = 12944042811.2\nsamples = 2660\nvalue = 232642.3"] ;
5 -> 6 ;
7 [label="mse = 31450261842.0\nsamples = 303\nvalue = 378790.7"] ;
5 -> 7 ;
8 [label="Property Class <= 286.5\nmse = 6558007343.6\nsamples = 5875\nvalue = 172352.6"] ;
4 -> 8 ;
9 [label="mse = 6810319054.0\nsamples = 3448\nvalue = 197021.4"] ;
8 -> 9 ;
10 [label="mse = 4113694755.4\nsamples = 2427\nvalue = 137372.3"] ;
8 -> 10 ;
11 [label="Latitude <= 41.8\nmse = 20589544733.7\nsamples = 4455\nvalue = 313934.2"] ;
3 -> 11 ;
12 [label="Building Square Feet <= 1960.5\nmse = 11012274671.8\nsamples = 2888\nvalue = 271211.3"] ;
11 -> 12 ;
13 [label="mse = 4020454842.3\nsamples = 1767\nvalue = 243719.1"] ;
12 -> 13 ;
14 [label="mse = 18890768050.9\nsamples = 1121\nvalue = 314025.8"] ;
12 -> 14 ;
15 [label="Building Square Feet <= 1781.0\nmse = 28701328960.3\nsamples = 1567\nvalue = 393743.5"] ;
11 -> 15 ;
16 [label="mse = 18673916197.8\nsamples = 938\nvalue = 328852.7"] ;
15 -> 16 ;
17 [label="mse = 28063733179.0\nsamples = 629\nvalue = 490003.7"] ;
15 -> 17 ;
18 [label="Latitude <= 41.8\nmse = 8777125021.5\nsamples = 62702\nvalue = 128391.6"] ;
2 -> 18 ;
19 [label="Longitude <= -87.7\nmse = 5930874153.9\nsamples = 48123\nvalue = 114490.2"] ;
18 -> 19 ;
20 [label="Wall Material <= 1.5\nmse = 6187881760.1\nsamples = 25306\nvalue = 140432.5"] ;
19 -> 20 ;
21 [label="mse = 4459684905.7\nsamples = 10096\nvalue = 109933.9"] ;
20 -> 21 ;
22 [label="mse = 6308129993.2\nsamples = 15210\nvalue = 160651.4"] ;
20 -> 22 ;
23 [label="Fireplaces <= 0.5\nmse = 4084826479.8\nsamples = 22817\nvalue = 85860.1"] ;
19 -> 23 ;
24 [label="mse = 3633076750.7\nsamples = 19752\nvalue = 80198.7"] ;
23 -> 24 ;
25 [label="mse = 5458077605.4\nsamples = 3065\nvalue = 122101.5"] ;
23 -> 25 ;
26 [label="Age <= 28.5\nmse = 15394785522.8\nsamples = 14579\nvalue = 173936.6"] ;
18 -> 26 ;
27 [label="Building Square Feet <= 1876.5\nmse = 27355448352.2\nsamples = 1988\nvalue = 274022.8"] ;
26 -> 27 ;
28 [label="mse = 15292760223.1\nsamples = 1587\nvalue = 227995.4"] ;
27 -> 28 ;
29 [label="mse = 34775043468.0\nsamples = 401\nvalue = 447236.7"] ;
27 -> 29 ;
30 [label="Sale Quarter <= 73.5\nmse = 11701352260.6\nsamples = 12591\nvalue = 158239.0"] ;
26 -> 30 ;
31 [label="mse = 9012044039.7\nsamples = 3900\nvalue = 117918.7"] ;
30 -> 31 ;
32 [label="mse = 11851345623.9\nsamples = 8691\nvalue = 176322.9"] ;
30 -> 32 ;
33 [label="Longitude <= -87.7\nmse = 35878328617.6\nsamples = 122153\nvalue = 281048.0"] ;
1 -> 33 ;
34 [label="Fireplaces <= 0.5\nmse = 21359970215.6\nsamples = 80737\nvalue = 237147.3"] ;
33 -> 34 ;
35 [label="Property Class <= 286.5\nmse = 15357833611.3\nsamples = 65877\nvalue = 210907.8"] ;
34 -> 35 ;
36 [label="Latitude <= 41.9\nmse = 16714513946.5\nsamples = 37111\nvalue = 248609.5"] ;
35 -> 36 ;
37 [label="mse = 18700524448.5\nsamples = 12078\nvalue = 189328.3"] ;
36 -> 37 ;
38 [label="mse = 13250652292.1\nsamples = 25033\nvalue = 277158.3"] ;
36 -> 38 ;
39 [label="Square root of age <= 5.0\nmse = 9345786405.4\nsamples = 28766\nvalue = 161905.3"] ;
35 -> 39 ;
40 [label="mse = 12665021152.6\nsamples = 8597\nvalue = 209499.6"] ;
39 -> 40 ;
41 [label="mse = 6508129502.6\nsamples = 20169\nvalue = 141329.2"] ;
39 -> 41 ;
42 [label="Longitude <= -87.9\nmse = 31391565734.6\nsamples = 14860\nvalue = 353243.9"] ;
34 -> 42 ;
43 [label="Building Square Feet <= 1829.5\nmse = 12341546118.4\nsamples = 8466\nvalue = 295676.1"] ;
42 -> 43 ;
44 [label="mse = 8268557665.6\nsamples = 4921\nvalue = 251219.7"] ;
43 -> 44 ;
45 [label="mse = 11418723929.0\nsamples = 3545\nvalue = 357712.8"] ;
43 -> 45 ;
46 [label="Latitude <= 42.1\nmse = 46512164354.9\nsamples = 6394\nvalue = 430259.9"] ;
42 -> 46 ;
47 [label="mse = 30011511030.0\nsamples = 4327\nvalue = 368297.2"] ;
46 -> 47 ;
48 [label="mse = 56127897390.1\nsamples = 2067\nvalue = 561110.5"] ;
46 -> 48 ;
49 [label="Building Square Feet <= 1811.5\nmse = 53095009785.2\nsamples = 41416\nvalue = 366589.2"] ;
33 -> 49 ;
50 [label="Latitude <= 42.0\nmse = 37189988940.7\nsamples = 37294\nvalue = 333742.9"] ;
49 -> 50 ;
51 [label="Lot Size Squared <= 89510520.0\nmse = 37257464794.3\nsamples = 25075\nvalue = 379658.3"] ;
50 -> 51 ;
52 [label="mse = 37797612081.1\nsamples = 11238\nvalue = 438581.6"] ;
51 -> 52 ;
53 [label="mse = 31713898507.1\nsamples = 13837\nvalue = 331833.8"] ;
51 -> 53 ;
54 [label="Property Class <= 286.5\nmse = 24105757278.8\nsamples = 12219\nvalue = 240621.2"] ;
50 -> 54 ;
55 [label="mse = 44278619807.7\nsamples = 1758\nvalue = 405918.3"] ;
54 -> 55 ;
56 [label="mse = 14944711125.2\nsamples = 10461\nvalue = 211658.0"] ;
54 -> 56 ;
57 [label="Central Air <= 0.5\nmse = 99254281176.0\nsamples = 4122\nvalue = 661391.7"] ;
49 -> 57 ;
58 [label="Latitude <= 41.9\nmse = 89004826928.9\nsamples = 2026\nvalue = 549423.5"] ;
57 -> 58 ;
59 [label="mse = 31401141213.5\nsamples = 173\nvalue = 222656.3"] ;
58 -> 59 ;
60 [label="mse = 83641574455.3\nsamples = 1853\nvalue = 579179.7"] ;
58 -> 60 ;
61 [label="Longitude <= -87.7\nmse = 85285434651.3\nsamples = 2096\nvalue = 769807.5"] ;
57 -> 61 ;
62 [label="mse = 53901827372.0\nsamples = 645\nvalue = 633751.8"] ;
61 -> 62 ;
63 [label="mse = 87420215386.9\nsamples = 1451\nvalue = 827264.9"] ;
61 -> 63 ;
64 [label="Latitude <= 41.9\nmse = 282943621858.6\nsamples = 25780\nvalue = 593958.4"] ;
0 -> 64 [labeldistance=2.5, labelangle=-45, headlabel="False"] ;
65 [label="Longitude <= -87.8\nmse = 92482662508.8\nsamples = 11090\nvalue = 330753.1"] ;
64 -> 65 ;
66 [label="Fireplaces <= 1.5\nmse = 106914330315.8\nsamples = 3978\nvalue = 510595.3"] ;
65 -> 66 ;
67 [label="Longitude <= -87.9\nmse = 70759751164.2\nsamples = 3431\nvalue = 465008.2"] ;
66 -> 67 ;
68 [label="Latitude <= 41.7\nmse = 66545188377.6\nsamples = 1402\nvalue = 564657.2"] ;
67 -> 68 ;
69 [label="mse = 15835697751.7\nsamples = 851\nvalue = 463832.0"] ;
68 -> 69 ;
70 [label="mse = 104626325154.1\nsamples = 551\nvalue = 717303.1"] ;
68 -> 70 ;
71 [label="Age Decade Squared <= 119.9\nmse = 61926179058.5\nsamples = 2029\nvalue = 395420.9"] ;
67 -> 71 ;
72 [label="mse = 47100946890.4\nsamples = 1849\nvalue = 373876.6"] ;
71 -> 72 ;
73 [label="mse = 161955549851.2\nsamples = 180\nvalue = 623573.0"] ;
71 -> 73 ;
74 [label="Building Square Feet <= 4820.5\nmse = 237808834942.0\nsamples = 547\nvalue = 790564.5"] ;
66 -> 74 ;
75 [label="Latitude <= 41.8\nmse = 101739743586.5\nsamples = 417\nvalue = 683222.4"] ;
74 -> 75 ;
76 [label="mse = 30397178902.3\nsamples = 183\nvalue = 544292.3"] ;
75 -> 76 ;
77 [label="mse = 132928225857.2\nsamples = 234\nvalue = 808145.9"] ;
75 -> 77 ;
78 [label="Longitude <= -87.9\nmse = 536547155627.2\nsamples = 130\nvalue = 1176221.4"] ;
74 -> 78 ;
79 [label="mse = 646505916219.9\nsamples = 67\nvalue = 1595758.8"] ;
78 -> 79 ;
80 [label="mse = 100055274121.3\nsamples = 63\nvalue = 773634.9"] ;
78 -> 80 ;
81 [label="Property Class <= 286.5\nmse = 55979515617.5\nsamples = 7112\nvalue = 229681.2"] ;
65 -> 81 ;
82 [label="Central Air <= 0.5\nmse = 49945785802.4\nsamples = 7025\nvalue = 222318.8"] ;
81 -> 82 ;
83 [label="Building Square Feet <= 3397.5\nmse = 35141295117.2\nsamples = 5254\nvalue = 190129.5"] ;
82 -> 83 ;
84 [label="mse = 18175872778.5\nsamples = 2759\nvalue = 150776.1"] ;
83 -> 84 ;
85 [label="mse = 50364071068.0\nsamples = 2495\nvalue = 233871.9"] ;
83 -> 85 ;
86 [label="Latitude <= 41.8\nmse = 81890313459.9\nsamples = 1771\nvalue = 318737.5"] ;
82 -> 86 ;
87 [label="mse = 11816029160.0\nsamples = 1389\nvalue = 246898.9"] ;
86 -> 87 ;
88 [label="mse = 246331099855.7\nsamples = 382\nvalue = 571331.0"] ;
86 -> 88 ;
89 [label="Latitude <= 41.8\nmse = 179261380739.6\nsamples = 87\nvalue = 839780.7"] ;
81 -> 89 ;
90 [label="Sale Month_Enc <= 3.5\nmse = 10406347736.7\nsamples = 12\nvalue = 192252.6"] ;
89 -> 90 ;
91 [label="mse = 234722222.2\nsamples = 2\nvalue = 364166.7"] ;
90 -> 91 ;
92 [label="mse = 5733043721.0\nsamples = 10\nvalue = 160018.7"] ;
90 -> 92 ;
93 [label="Building Square Feet <= 2899.0\nmse = 126992553831.9\nsamples = 75\nvalue = 945841.4"] ;
89 -> 93 ;
94 [label="mse = 68113094470.2\nsamples = 48\nvalue = 807974.1"] ;
93 -> 94 ;
95 [label="mse = 128751442717.4\nsamples = 27\nvalue = 1228832.2"] ;
93 -> 95 ;
96 [label="Fireplaces <= 1.5\nmse = 335094406055.9\nsamples = 14690\nvalue = 795098.6"] ;
64 -> 96 ;
97 [label="Longitude <= -87.7\nmse = 201993966399.1\nsamples = 11852\nvalue = 679738.1"] ;
96 -> 97 ;
98 [label="Property Class <= 209.5\nmse = 106737201933.9\nsamples = 9665\nvalue = 584056.1"] ;
97 -> 98 ;
99 [label="Building Square Feet <= 3180.5\nmse = 159000522891.2\nsamples = 2248\nvalue = 808886.9"] ;
98 -> 99 ;
100 [label="mse = 89241866346.6\nsamples = 1113\nvalue = 675314.4"] ;
99 -> 100 ;
101 [label="mse = 192406229087.8\nsamples = 1135\nvalue = 937178.0"] ;
99 -> 101 ;
102 [label="Age Squared <= 420.5\nmse = 70414392903.6\nsamples = 7417\nvalue = 515041.0"] ;
98 -> 102 ;
103 [label="mse = 99188278535.9\nsamples = 1673\nvalue = 693151.1"] ;
102 -> 103 ;
104 [label="mse = 50845154633.1\nsamples = 5744\nvalue = 464845.0"] ;
102 -> 104 ;
105 [label="Longitude <= -87.7\nmse = 403922282502.6\nsamples = 2187\nvalue = 1106990.6"] ;
97 -> 105 ;
106 [label="Use <= 1.5\nmse = 230732447656.5\nsamples = 1821\nvalue = 991799.9"] ;
105 -> 106 ;
107 [label="mse = 223549003300.9\nsamples = 658\nvalue = 1237608.6"] ;
106 -> 107 ;
108 [label="mse = 181530087430.5\nsamples = 1163\nvalue = 853253.1"] ;
106 -> 108 ;
109 [label="Age Decade Squared <= 0.2\nmse = 872186801608.5\nsamples = 366\nvalue = 1684572.2"] ;
105 -> 109 ;
110 [label="mse = 1795308751847.0\nsamples = 12\nvalue = 3783722.7"] ;
109 -> 110 ;
111 [label="mse = 660285483619.4\nsamples = 354\nvalue = 1603687.5"] ;
109 -> 111 ;
112 [label="Building Square Feet <= 4877.0\nmse = 602531139730.9\nsamples = 2838\nvalue = 1268030.5"] ;
96 -> 112 ;
113 [label="Longitude <= -87.8\nmse = 352867692488.8\nsamples = 2333\nvalue = 1130484.5"] ;
112 -> 113 ;
114 [label="Longitude <= -87.8\nmse = 132573283543.5\nsamples = 996\nvalue = 822017.9"] ;
113 -> 114 ;
115 [label="mse = 64107642335.5\nsamples = 511\nvalue = 669611.9"] ;
114 -> 115 ;
116 [label="mse = 154561976781.3\nsamples = 485\nvalue = 976570.5"] ;
114 -> 116 ;
117 [label="Building Square Feet <= 3646.5\nmse = 393502421415.7\nsamples = 1337\nvalue = 1355957.6"] ;
113 -> 117 ;
118 [label="mse = 232111411198.2\nsamples = 871\nvalue = 1188806.7"] ;
117 -> 118 ;
119 [label="mse = 549545522299.3\nsamples = 466\nvalue = 1697588.4"] ;
117 -> 119 ;
120 [label="Longitude <= -87.8\nmse = 1262593782589.5\nsamples = 505\nvalue = 1898238.2"] ;
112 -> 120 ;
121 [label="Age <= 21.5\nmse = 363286928812.1\nsamples = 227\nvalue = 1339336.1"] ;
120 -> 121 ;
122 [label="mse = 365204395021.7\nsamples = 140\nvalue = 1556966.7"] ;
121 -> 122 ;
123 [label="mse = 155139163248.7\nsamples = 87\nvalue = 982485.8"] ;
121 -> 123 ;
124 [label="Neighborhood Code <= 170.5\nmse = 1531391259088.1\nsamples = 278\nvalue = 2340189.5"] ;
120 -> 124 ;
125 [label="mse = 1071704191663.5\nsamples = 266\nvalue = 2230636.8"] ;
124 -> 125 ;
126 [label="mse = 4353653228318.0\nsamples = 12\nvalue = 5546432.4"] ;
124 -> 126 ;
}